{"inputs": 8, "outputs": 2, "learning_rate": 0.01, "model_compiled": true, "layers": [{"neurons": 8, "inputs": 8, "weights": [[0.9641369760310251, 1.6000584347938658, -0.5097557966045185, -0.3576508183306105, 1.815366772694612, 1.4201865715909854, 1.2882302427780028, -1.114051440498985], [-0.3242440599047406, -0.044787459277171586, 0.2744035651713461, -0.5310311005301256, 0.18752522262948265, 1.038327377030605, 0.6836498144703349, -0.742267025448268], [-0.32352241395114684, 0.1492157076008512, -0.3262416787884422, 0.06698428377728402, 0.05370903499445436, 0.6608107836885145, 0.025936697475438544, -0.629526402320004], [-0.5552115468149972, 0.1615357310854095, -0.06855570761313254, 0.003791851436684426, 1.0809757953109052, -0.18417283101433501, 0.505165141363113, 0.10290186140203425], [0.5517611755179932, -1.2580656701731041, 0.7903573949144134, -0.6357781348138795, 0.2652710438850737, 0.09135791108679127, -0.19563669253794946, 0.43611823775834224], [0.24478545587632775, 0.6910182304870551, 0.41991688365403124, 0.24946558325554677, -0.14198950034949726, 2.159139676496028, -0.2810418172416461, -0.3171903914608474], [-0.3242880570245443, -0.784908170547646, 0.31962546844377826, -0.34972012552339216, 1.7779022878163906, 0.20827109686615386, 0.05105304479528963, -2.7771317882357622], [-1.8026977194396259, 0.14195131781367562, 0.11352638600886056, -0.8085921794851497, 0.022468785215029947, 0.8680537486288022, 0.05684029706221639, 0.3381497568794067]], "biases": [[-1.9107781067025298], [0.1560552452952623], [-2.401464199310245], [1.9014818477984226], [1.103378323456952], [-0.6068723396051892], [0.005623845527594468], [-0.4809687153691589]], "activation_function": "tanh", "loss_function": "ce"}, {"neurons": 2, "inputs": 8, "weights": [[-1.8477725487933414, -1.9618001074372884, -0.15829216094284024, 0.07185500021962761, -1.4432698105451722, -2.0350948046882427, 1.8595977305693763, -0.8596904919807002], [1.0595116053721712, -0.7419816740558075, 0.6468143815453334, -0.44162860450881, -2.858945137059718, 1.1771177702230455, -2.2044971667062976, 0.5401058023369574]], "biases": [[0.8901373456461387], [-2.0003275771491524]], "activation_function": "softmax", "loss_function": "ce"}], "accuracy": 80.15625, "loss": 0.44382339161337586, "epochs": 1000}